<?xml version="1.0"?>
<opencv_storage>
<!-- Automatically converted from haarcascade, window size = 20x20 -->
<haarcascade_left_arrow4 type_id="opencv-haar-classifier">
  <size>
    20 20</size>
  <stages>
    <_>
      <!-- stage 0 -->
      <trees>
        <_>
          <!-- tree 0 -->
          <_>
            <!-- root node -->
            <feature>
              <rects>
                <_>
                  7 7 4 12 -1.</_>
                <_>
                  7 11 4 4 3.</_></rects>
              <tilted>0</tilted></feature>
            <threshold>-3.1190849840641022e-02</threshold>
            <left_node>1</left_node>
            <right_val>-9.1200011968612671e-01</right_val></_>
          <_>
            <!-- node 1 -->
            <feature>
              <rects>
                <_>
                  7 6 8 12 -1.</_>
                <_>
                  7 6 4 6 2.</_>
                <_>
                  11 12 4 6 2.</_></rects>
              <tilted>0</tilted></feature>
            <threshold>1.2850210070610046e-02</threshold>
            <left_val>-1.</left_val>
            <right_val>8.5256427526473999e-01</right_val></_></_>
        <_>
          <!-- tree 1 -->
          <_>
            <!-- root node -->
            <feature>
              <rects>
                <_>
                  10 6 8 4 -1.</_>
                <_>
                  10 6 4 2 2.</_>
                <_>
                  14 8 4 2 2.</_></rects>
              <tilted>0</tilted></feature>
            <threshold>-8.8065359741449356e-03</threshold>
            <left_node>1</left_node>
            <right_val>-8.5640341043472290e-01</right_val></_>
          <_>
            <!-- node 1 -->
            <feature>
              <rects>
                <_>
                  13 3 4 9 -1.</_>
                <_>
                  13 3 2 9 2.</_></rects>
              <tilted>1</tilted></feature>
            <threshold>-1.8424569861963391e-03</threshold>
            <left_val>-1.</left_val>
            <right_val>9.3401038646697998e-01</right_val></_></_>
        <_>
          <!-- tree 2 -->
          <_>
            <!-- root node -->
            <feature>
              <rects>
                <_>
                  9 9 4 5 -1.</_>
                <_>
                  11 9 2 5 2.</_></rects>
              <tilted>0</tilted></feature>
            <threshold>5.7183927856385708e-03</threshold>
            <left_val>-8.0190390348434448e-01</left_val>
            <right_node>1</right_node></_>
          <_>
            <!-- node 1 -->
            <feature>
              <rects>
                <_>
                  9 7 6 3 -1.</_>
                <_>
                  12 7 3 3 2.</_></rects>
              <tilted>0</tilted></feature>
            <threshold>-4.9068140797317028e-03</threshold>
            <left_val>9.4138777256011963e-01</left_val>
            <right_val>-9.9999350309371948e-01</right_val></_></_>
        <_>
          <!-- tree 3 -->
          <_>
            <!-- root node -->
            <feature>
              <rects>
                <_>
                  6 11 10 6 -1.</_>
                <_>
                  11 11 5 6 2.</_></rects>
              <tilted>0</tilted></feature>
            <threshold>1.4116520062088966e-02</threshold>
            <left_val>-8.6503159999847412e-01</left_val>
            <right_node>1</right_node></_>
          <_>
            <!-- node 1 -->
            <feature>
              <rects>
                <_>
                  9 8 4 3 -1.</_>
                <_>
                  9 8 2 3 2.</_></rects>
              <tilted>1</tilted></feature>
            <threshold>-7.8090297756716609e-04</threshold>
            <left_val>-9.6447837352752686e-01</left_val>
            <right_val>8.7596040964126587e-01</right_val></_></_></trees>
      <stage_threshold>4.8944648355245590e-02</stage_threshold>
      <parent>-1</parent>
      <next>-1</next></_>
    <_>
      <!-- stage 1 -->
      <trees>
        <_>
          <!-- tree 0 -->
          <_>
            <!-- root node -->
            <feature>
              <rects>
                <_>
                  11 0 2 12 -1.</_>
                <_>
                  11 4 2 4 3.</_></rects>
              <tilted>0</tilted></feature>
            <threshold>-2.8481410816311836e-02</threshold>
            <left_val>7.7385157346725464e-01</left_val>
            <right_node>1</right_node></_>
          <_>
            <!-- node 1 -->
            <feature>
              <rects>
                <_>
                  4 0 16 3 -1.</_>
                <_>
                  8 4 8 3 2.</_></rects>
              <tilted>1</tilted></feature>
            <threshold>1.9350109994411469e-01</threshold>
            <left_val>-9.0680998563766479e-01</left_val>
            <right_val>8.9473682641983032e-01</right_val></_></_>
        <_>
          <!-- tree 1 -->
          <_>
            <!-- root node -->
            <feature>
              <rects>
                <_>
                  11 2 4 12 -1.</_>
                <_>
                  11 2 2 6 2.</_>
                <_>
                  13 8 2 6 2.</_></rects>
              <tilted>0</tilted></feature>
            <threshold>-1.6517199575901031e-02</threshold>
            <left_node>1</left_node>
            <right_val>-7.8091180324554443e-01</right_val></_>
          <_>
            <!-- node 1 -->
            <feature>
              <rects>
                <_>
                  5 10 2 4 -1.</_>
                <_>
                  5 12 2 2 2.</_></rects>
              <tilted>0</tilted></feature>
            <threshold>-3.5567500162869692e-03</threshold>
            <left_val>-9.6394389867782593e-01</left_val>
            <right_val>8.8693970441818237e-01</right_val></_></_>
        <_>
          <!-- tree 2 -->
          <_>
            <!-- root node -->
            <feature>
              <rects>
                <_>
                  10 6 4 1 -1.</_>
                <_>
                  10 6 2 1 2.</_></rects>
              <tilted>1</tilted></feature>
            <threshold>1.4505779836326838e-03</threshold>
            <left_node>1</left_node>
            <right_val>-9.5147389173507690e-01</right_val></_>
          <_>
            <!-- node 1 -->
            <feature>
              <rects>
                <_>
                  0 11 9 6 -1.</_>
                <_>
                  0 13 9 2 3.</_></rects>
              <tilted>0</tilted></feature>
            <threshold>-2.4435630068182945e-02</threshold>
            <left_val>-8.2195740938186646e-01</left_val>
            <right_val>7.5833350419998169e-01</right_val></_></_>
        <_>
          <!-- tree 3 -->
          <_>
            <!-- root node -->
            <feature>
              <rects>
                <_>
                  8 13 5 2 -1.</_>
                <_>
                  8 14 5 1 2.</_></rects>
              <tilted>0</tilted></feature>
            <threshold>4.8226749640889466e-04</threshold>
            <left_node>1</left_node>
            <right_val>-9.2123937606811523e-01</right_val></_>
          <_>
            <!-- node 1 -->
            <feature>
              <rects>
                <_>
                  9 13 1 2 -1.</_>
                <_>
                  9 14 1 1 2.</_></rects>
              <tilted>0</tilted></feature>
            <threshold>-2.5319820269942284e-04</threshold>
            <left_val>-8.4294992685317993e-01</left_val>
            <right_val>7.2645628452301025e-01</right_val></_></_></trees>
      <stage_threshold>-2.3207780718803406e-01</stage_threshold>
      <parent>0</parent>
      <next>-1</next></_>
    <_>
      <!-- stage 2 -->
      <trees>
        <_>
          <!-- tree 0 -->
          <_>
            <!-- root node -->
            <feature>
              <rects>
                <_>
                  10 9 2 4 -1.</_>
                <_>
                  10 10 2 2 2.</_></rects>
              <tilted>0</tilted></feature>
            <threshold>-2.6648220227798447e-05</threshold>
            <left_node>1</left_node>
            <right_val>-9.3488389253616333e-01</right_val></_>
          <_>
            <!-- node 1 -->
            <feature>
              <rects>
                <_>
                  4 7 11 6 -1.</_>
                <_>
                  4 10 11 3 2.</_></rects>
              <tilted>0</tilted></feature>
            <threshold>-1.0372989811003208e-02</threshold>
            <left_val>7.8816199302673340e-01</left_val>
            <right_val>-8.1250000000000000e-01</right_val></_></_>
        <_>
          <!-- tree 1 -->
          <_>
            <!-- root node -->
            <feature>
              <rects>
                <_>
                  12 10 2 8 -1.</_>
                <_>
                  12 10 1 4 2.</_>
                <_>
                  13 14 1 4 2.</_></rects>
              <tilted>0</tilted></feature>
            <threshold>4.0511228144168854e-03</threshold>
            <left_val>-7.2886151075363159e-01</left_val>
            <right_node>1</right_node></_>
          <_>
            <!-- node 1 -->
            <feature>
              <rects>
                <_>
                  8 10 4 4 -1.</_>
                <_>
                  8 10 2 2 2.</_>
                <_>
                  10 12 2 2 2.</_></rects>
              <tilted>0</tilted></feature>
            <threshold>4.8191021051025018e-05</threshold>
            <left_val>-1.</left_val>
            <right_val>8.6344152688980103e-01</right_val></_></_>
        <_>
          <!-- tree 2 -->
          <_>
            <!-- root node -->
            <feature>
              <rects>
                <_>
                  12 8 4 2 -1.</_>
                <_>
                  12 8 2 1 2.</_>
                <_>
                  14 9 2 1 2.</_></rects>
              <tilted>0</tilted></feature>
            <threshold>-2.1841929992660880e-04</threshold>
            <left_node>1</left_node>
            <right_val>-8.7171661853790283e-01</right_val></_>
          <_>
            <!-- node 1 -->
            <feature>
              <rects>
                <_>
                  7 13 8 3 -1.</_>
                <_>
                  11 13 4 3 2.</_></rects>
              <tilted>0</tilted></feature>
            <threshold>2.2220730315893888e-03</threshold>
            <left_val>-9.8393648862838745e-01</left_val>
            <right_val>7.4629658460617065e-01</right_val></_></_>
        <_>
          <!-- tree 3 -->
          <_>
            <!-- root node -->
            <feature>
              <rects>
                <_>
                  5 10 4 3 -1.</_>
                <_>
                  5 11 4 1 3.</_></rects>
              <tilted>0</tilted></feature>
            <threshold>-2.0263310580048710e-04</threshold>
            <left_node>1</left_node>
            <right_val>-9.5510667562484741e-01</right_val></_>
          <_>
            <!-- node 1 -->
            <feature>
              <rects>
                <_>
                  6 12 4 2 -1.</_>
                <_>
                  8 12 2 2 2.</_></rects>
              <tilted>0</tilted></feature>
            <threshold>-1.6631629550829530e-03</threshold>
            <left_val>-8.2015347480773926e-01</left_val>
            <right_val>6.9947171211242676e-01</right_val></_></_></trees>
      <stage_threshold>-2.1797719597816467e-01</stage_threshold>
      <parent>1</parent>
      <next>-1</next></_>
    <_>
      <!-- stage 3 -->
      <trees>
        <_>
          <!-- tree 0 -->
          <_>
            <!-- root node -->
            <feature>
              <rects>
                <_>
                  12 4 4 13 -1.</_>
                <_>
                  13 4 2 13 2.</_></rects>
              <tilted>0</tilted></feature>
            <threshold>-9.4751156866550446e-03</threshold>
            <left_node>1</left_node>
            <right_val>-8.0219787359237671e-01</right_val></_>
          <_>
            <!-- node 1 -->
            <feature>
              <rects>
                <_>
                  12 11 1 4 -1.</_>
                <_>
                  12 13 1 2 2.</_></rects>
              <tilted>0</tilted></feature>
            <threshold>8.1297097494825721e-04</threshold>
            <left_val>8.5714292526245117e-01</left_val>
            <right_val>-1.</right_val></_></_>
        <_>
          <!-- tree 1 -->
          <_>
            <!-- root node -->
            <feature>
              <rects>
                <_>
                  7 7 6 7 -1.</_>
                <_>
                  9 7 2 7 3.</_></rects>
              <tilted>0</tilted></feature>
            <threshold>-4.1502658277750015e-03</threshold>
            <left_node>1</left_node>
            <right_val>-7.8282999992370605e-01</right_val></_>
          <_>
            <!-- node 1 -->
            <feature>
              <rects>
                <_>
                  11 11 4 2 -1.</_>
                <_>
                  11 12 4 1 2.</_></rects>
              <tilted>0</tilted></feature>
            <threshold>6.3866598065942526e-04</threshold>
            <left_val>7.6793140172958374e-01</left_val>
            <right_val>-9.4858598709106445e-01</right_val></_></_>
        <_>
          <!-- tree 2 -->
          <_>
            <!-- root node -->
            <feature>
              <rects>
                <_>
                  13 7 3 3 -1.</_>
                <_>
                  14 8 1 1 9.</_></rects>
              <tilted>0</tilted></feature>
            <threshold>-1.8221160644316114e-05</threshold>
            <left_node>1</left_node>
            <right_val>-8.4169328212738037e-01</right_val></_>
          <_>
            <!-- node 1 -->
            <feature>
              <rects>
                <_>
                  9 10 8 4 -1.</_>
                <_>
                  9 11 8 2 2.</_></rects>
              <tilted>0</tilted></feature>
            <threshold>4.5128550846129656e-04</threshold>
            <left_val>7.1148627996444702e-01</left_val>
            <right_val>-8.9647752046585083e-01</right_val></_></_>
        <_>
          <!-- tree 3 -->
          <_>
            <!-- root node -->
            <feature>
              <rects>
                <_>
                  4 3 8 6 -1.</_>
                <_>
                  4 5 8 2 3.</_></rects>
              <tilted>0</tilted></feature>
            <threshold>-4.5901951380074024e-03</threshold>
            <left_node>1</left_node>
            <right_val>-8.6476159095764160e-01</right_val></_>
          <_>
            <!-- node 1 -->
            <feature>
              <rects>
                <_>
                  10 12 4 2 -1.</_>
                <_>
                  10 13 4 1 2.</_></rects>
              <tilted>0</tilted></feature>
            <threshold>1.0727989720180631e-03</threshold>
            <left_val>5.5924129486083984e-01</left_val>
            <right_val>-9.7477072477340698e-01</right_val></_></_>
        <_>
          <!-- tree 4 -->
          <_>
            <!-- root node -->
            <feature>
              <rects>
                <_>
                  12 10 4 2 -1.</_>
                <_>
                  13 11 2 2 2.</_></rects>
              <tilted>1</tilted></feature>
            <threshold>9.2225018888711929e-03</threshold>
            <left_node>1</left_node>
            <right_val>6.9254761934280396e-01</right_val></_>
          <_>
            <!-- node 1 -->
            <feature>
              <rects>
                <_>
                  4 12 4 4 -1.</_>
                <_>
                  3 13 4 2 2.</_></rects>
              <tilted>1</tilted></feature>
            <threshold>1.7442820593714714e-02</threshold>
            <left_val>-8.8146048784255981e-01</left_val>
            <right_val>7.6836949586868286e-01</right_val></_></_>
        <_>
          <!-- tree 5 -->
          <_>
            <!-- root node -->
            <feature>
              <rects>
                <_>
                  12 9 8 8 -1.</_>
                <_>
                  16 9 4 8 2.</_></rects>
              <tilted>0</tilted></feature>
            <threshold>-1.1148689687252045e-01</threshold>
            <left_val>8.8845109939575195e-01</left_val>
            <right_node>1</right_node></_>
          <_>
            <!-- node 1 -->
            <feature>
              <rects>
                <_>
                  5 0 1 20 -1.</_>
                <_>
                  5 5 1 10 2.</_></rects>
              <tilted>0</tilted></feature>
            <threshold>-2.5847779586911201e-02</threshold>
            <left_val>6.4961618185043335e-01</left_val>
            <right_val>-8.1794708967208862e-01</right_val></_></_></trees>
      <stage_threshold>-3.0972790718078613e-01</stage_threshold>
      <parent>2</parent>
      <next>-1</next></_>
    <_>
      <!-- stage 4 -->
      <trees>
        <_>
          <!-- tree 0 -->
          <_>
            <!-- root node -->
            <feature>
              <rects>
                <_>
                  8 9 2 1 -1.</_>
                <_>
                  9 9 1 1 2.</_></rects>
              <tilted>0</tilted></feature>
            <threshold>-1.1545050074346364e-04</threshold>
            <left_node>1</left_node>
            <right_val>-8.1974261999130249e-01</right_val></_>
          <_>
            <!-- node 1 -->
            <feature>
              <rects>
                <_>
                  8 5 6 3 -1.</_>
                <_>
                  10 5 2 3 3.</_></rects>
              <tilted>0</tilted></feature>
            <threshold>8.1379461335018277e-04</threshold>
            <left_val>8.4931510686874390e-01</left_val>
            <right_val>-7.5999999046325684e-01</right_val></_></_>
        <_>
          <!-- tree 1 -->
          <_>
            <!-- root node -->
            <feature>
              <rects>
                <_>
                  13 5 4 1 -1.</_>
                <_>
                  13 5 2 1 2.</_></rects>
              <tilted>1</tilted></feature>
            <threshold>2.1514429245144129e-03</threshold>
            <left_node>1</left_node>
            <right_val>-9.9071967601776123e-01</right_val></_>
          <_>
            <!-- node 1 -->
            <feature>
              <rects>
                <_>
                  13 5 4 1 -1.</_>
                <_>
                  13 5 2 1 2.</_></rects>
              <tilted>1</tilted></feature>
            <threshold>-4.1873198933899403e-03</threshold>
            <left_val>-8.4745830297470093e-01</left_val>
            <right_val>6.9294822216033936e-01</right_val></_></_>
        <_>
          <!-- tree 2 -->
          <_>
            <!-- root node -->
            <feature>
              <rects>
                <_>
                  12 13 4 3 -1.</_>
                <_>
                  11 14 4 1 3.</_></rects>
              <tilted>1</tilted></feature>
            <threshold>-3.5005500540137291e-03</threshold>
            <left_val>5.4564929008483887e-01</left_val>
            <right_node>1</right_node></_>
          <_>
            <!-- node 1 -->
            <feature>
              <rects>
                <_>
                  8 0 4 6 -1.</_>
                <_>
                  8 0 2 6 2.</_></rects>
              <tilted>1</tilted></feature>
            <threshold>7.8140661120414734e-02</threshold>
            <left_val>-9.0357398986816406e-01</left_val>
            <right_val>1.0000079870223999e+00</right_val></_></_>
        <_>
          <!-- tree 3 -->
          <_>
            <!-- root node -->
            <feature>
              <rects>
                <_>
                  1 0 15 18 -1.</_>
                <_>
                  6 6 5 6 9.</_></rects>
              <tilted>0</tilted></feature>
            <threshold>5.3856080770492554e-01</threshold>
            <left_node>1</left_node>
            <right_val>8.5903167724609375e-01</right_val></_>
          <_>
            <!-- node 1 -->
            <feature>
              <rects>
                <_>
                  14 1 6 8 -1.</_>
                <_>
                  12 3 6 4 2.</_></rects>
              <tilted>1</tilted></feature>
            <threshold>-6.2725357711315155e-02</threshold>
            <left_val>7.5001651048660278e-01</left_val>
            <right_val>-9.2578691244125366e-01</right_val></_></_></trees>
      <stage_threshold>-3.7828078866004944e-01</stage_threshold>
      <parent>3</parent>
      <next>-1</next></_></stages></haarcascade_left_arrow4>
</opencv_storage>
