<?xml version="1.0"?>
<opencv_storage>
<!-- Automatically converted from haarcascade, window size = 20x20 -->
<haarcascade_left_arrow16 type_id="opencv-haar-classifier">
  <size>
    20 20</size>
  <stages>
    <_>
      <!-- stage 0 -->
      <trees>
        <_>
          <!-- tree 0 -->
          <_>
            <!-- root node -->
            <feature>
              <rects>
                <_>
                  12 2 6 12 -1.</_>
                <_>
                  12 2 3 6 2.</_>
                <_>
                  15 8 3 6 2.</_></rects>
              <tilted>0</tilted></feature>
            <threshold>-4.4042199850082397e-02</threshold>
            <left_node>1</left_node>
            <right_val>-9.6868717670440674e-01</right_val></_>
          <_>
            <!-- node 1 -->
            <feature>
              <rects>
                <_>
                  6 7 2 8 -1.</_>
                <_>
                  6 11 2 4 2.</_></rects>
              <tilted>0</tilted></feature>
            <threshold>-8.1350179389119148e-03</threshold>
            <left_val>1.</left_val>
            <right_val>-9.9999892711639404e-01</right_val></_></_>
        <_>
          <!-- tree 1 -->
          <_>
            <!-- root node -->
            <feature>
              <rects>
                <_>
                  11 3 8 8 -1.</_>
                <_>
                  11 3 4 4 2.</_>
                <_>
                  15 7 4 4 2.</_></rects>
              <tilted>0</tilted></feature>
            <threshold>-4.1771911084651947e-02</threshold>
            <left_node>1</left_node>
            <right_val>-9.7896099090576172e-01</right_val></_>
          <_>
            <!-- node 1 -->
            <feature>
              <rects>
                <_>
                  13 7 6 6 -1.</_>
                <_>
                  13 7 3 3 2.</_>
                <_>
                  16 10 3 3 2.</_></rects>
              <tilted>0</tilted></feature>
            <threshold>-6.2564702238887548e-04</threshold>
            <left_val>9.9718058109283447e-01</left_val>
            <right_val>-1.0000059604644775e+00</right_val></_></_></trees>
      <stage_threshold>2.1039009094238281e-02</stage_threshold>
      <parent>-1</parent>
      <next>-1</next></_>
    <_>
      <!-- stage 1 -->
      <trees>
        <_>
          <!-- tree 0 -->
          <_>
            <!-- root node -->
            <feature>
              <rects>
                <_>
                  13 9 1 2 -1.</_>
                <_>
                  13 9 1 1 2.</_></rects>
              <tilted>1</tilted></feature>
            <threshold>4.5281290076673031e-03</threshold>
            <left_val>-7.8775852918624878e-01</left_val>
            <right_node>1</right_node></_>
          <_>
            <!-- node 1 -->
            <feature>
              <rects>
                <_>
                  5 6 12 10 -1.</_>
                <_>
                  5 6 6 5 2.</_>
                <_>
                  11 11 6 5 2.</_></rects>
              <tilted>0</tilted></feature>
            <threshold>5.5705010890960693e-02</threshold>
            <left_val>-1.</left_val>
            <right_val>9.6421432495117188e-01</right_val></_></_>
        <_>
          <!-- tree 1 -->
          <_>
            <!-- root node -->
            <feature>
              <rects>
                <_>
                  13 8 1 6 -1.</_>
                <_>
                  11 10 1 2 3.</_></rects>
              <tilted>1</tilted></feature>
            <threshold>-3.7140750791877508e-03</threshold>
            <left_node>1</left_node>
            <right_val>-9.2666327953338623e-01</right_val></_>
          <_>
            <!-- node 1 -->
            <feature>
              <rects>
                <_>
                  1 6 6 7 -1.</_>
                <_>
                  3 6 2 7 3.</_></rects>
              <tilted>0</tilted></feature>
            <threshold>-9.6319168806076050e-03</threshold>
            <left_val>9.2008620500564575e-01</left_val>
            <right_val>-7.9439318180084229e-01</right_val></_></_>
        <_>
          <!-- tree 2 -->
          <_>
            <!-- root node -->
            <feature>
              <rects>
                <_>
                  13 4 6 13 -1.</_>
                <_>
                  15 4 2 13 3.</_></rects>
              <tilted>0</tilted></feature>
            <threshold>-4.9098901450634003e-02</threshold>
            <left_node>1</left_node>
            <right_val>-8.0851292610168457e-01</right_val></_>
          <_>
            <!-- node 1 -->
            <feature>
              <rects>
                <_>
                  11 0 7 4 -1.</_>
                <_>
                  10 1 7 2 2.</_></rects>
              <tilted>1</tilted></feature>
            <threshold>-1.6053799539804459e-02</threshold>
            <left_val>9.3247061967849731e-01</left_val>
            <right_val>-1.0000280141830444e+00</right_val></_></_>
        <_>
          <!-- tree 3 -->
          <_>
            <!-- root node -->
            <feature>
              <rects>
                <_>
                  4 8 6 12 -1.</_>
                <_>
                  4 11 6 6 2.</_></rects>
              <tilted>0</tilted></feature>
            <threshold>-4.9266610294580460e-02</threshold>
            <left_node>1</left_node>
            <right_val>-8.9650011062622070e-01</right_val></_>
          <_>
            <!-- node 1 -->
            <feature>
              <rects>
                <_>
                  11 0 8 1 -1.</_>
                <_>
                  11 0 4 1 2.</_></rects>
              <tilted>1</tilted></feature>
            <threshold>-2.8317820397205651e-04</threshold>
            <left_val>-1.</left_val>
            <right_val>8.9639508724212646e-01</right_val></_></_></trees>
      <stage_threshold>1.1444400250911713e-01</stage_threshold>
      <parent>0</parent>
      <next>-1</next></_>
    <_>
      <!-- stage 2 -->
      <trees>
        <_>
          <!-- tree 0 -->
          <_>
            <!-- root node -->
            <feature>
              <rects>
                <_>
                  11 2 8 10 -1.</_>
                <_>
                  11 2 4 5 2.</_>
                <_>
                  15 7 4 5 2.</_></rects>
              <tilted>0</tilted></feature>
            <threshold>-7.8183978796005249e-02</threshold>
            <left_node>1</left_node>
            <right_val>-7.8038907051086426e-01</right_val></_>
          <_>
            <!-- node 1 -->
            <feature>
              <rects>
                <_>
                  15 5 2 9 -1.</_>
                <_>
                  15 8 2 3 3.</_></rects>
              <tilted>0</tilted></feature>
            <threshold>-1.1859050020575523e-02</threshold>
            <left_val>-1.</left_val>
            <right_val>8.6199659109115601e-01</right_val></_></_>
        <_>
          <!-- tree 1 -->
          <_>
            <!-- root node -->
            <feature>
              <rects>
                <_>
                  4 15 12 4 -1.</_>
                <_>
                  8 15 4 4 3.</_></rects>
              <tilted>0</tilted></feature>
            <threshold>-1.2934999540448189e-02</threshold>
            <left_node>1</left_node>
            <right_val>-9.5018261671066284e-01</right_val></_>
          <_>
            <!-- node 1 -->
            <feature>
              <rects>
                <_>
                  8 14 2 2 -1.</_>
                <_>
                  8 14 2 1 2.</_></rects>
              <tilted>1</tilted></feature>
            <threshold>-2.2363320458680391e-03</threshold>
            <left_val>-9.0592789649963379e-01</left_val>
            <right_val>7.8624862432479858e-01</right_val></_></_>
        <_>
          <!-- tree 2 -->
          <_>
            <!-- root node -->
            <feature>
              <rects>
                <_>
                  3 1 9 15 -1.</_>
                <_>
                  6 6 3 5 9.</_></rects>
              <tilted>0</tilted></feature>
            <threshold>3.9307311177253723e-01</threshold>
            <left_node>1</left_node>
            <right_val>8.0951672792434692e-01</right_val></_>
          <_>
            <!-- node 1 -->
            <feature>
              <rects>
                <_>
                  0 1 20 6 -1.</_>
                <_>
                  5 1 10 6 2.</_></rects>
              <tilted>0</tilted></feature>
            <threshold>-2.0054440200328827e-01</threshold>
            <left_val>8.7650078535079956e-01</left_val>
            <right_val>-8.2965731620788574e-01</right_val></_></_>
        <_>
          <!-- tree 3 -->
          <_>
            <!-- root node -->
            <feature>
              <rects>
                <_>
                  12 12 3 6 -1.</_>
                <_>
                  12 14 3 2 3.</_></rects>
              <tilted>0</tilted></feature>
            <threshold>2.9847980476915836e-04</threshold>
            <left_val>-9.3342798948287964e-01</left_val>
            <right_node>1</right_node></_>
          <_>
            <!-- node 1 -->
            <feature>
              <rects>
                <_>
                  7 13 8 2 -1.</_>
                <_>
                  7 13 4 1 2.</_>
                <_>
                  11 14 4 1 2.</_></rects>
              <tilted>0</tilted></feature>
            <threshold>1.9967420957982540e-03</threshold>
            <left_val>7.1451991796493530e-01</left_val>
            <right_val>-1.0000129938125610e+00</right_val></_></_></trees>
      <stage_threshold>-1.1484009772539139e-01</stage_threshold>
      <parent>1</parent>
      <next>-1</next></_>
    <_>
      <!-- stage 3 -->
      <trees>
        <_>
          <!-- tree 0 -->
          <_>
            <!-- root node -->
            <feature>
              <rects>
                <_>
                  7 13 8 2 -1.</_>
                <_>
                  7 13 4 1 2.</_>
                <_>
                  11 14 4 1 2.</_></rects>
              <tilted>0</tilted></feature>
            <threshold>-5.6706607574597001e-04</threshold>
            <left_val>-9.1647958755493164e-01</left_val>
            <right_node>1</right_node></_>
          <_>
            <!-- node 1 -->
            <feature>
              <rects>
                <_>
                  3 9 9 2 -1.</_>
                <_>
                  6 9 3 2 3.</_></rects>
              <tilted>0</tilted></feature>
            <threshold>4.8184678889811039e-03</threshold>
            <left_val>-1.</left_val>
            <right_val>7.8463631868362427e-01</right_val></_></_>
        <_>
          <!-- tree 1 -->
          <_>
            <!-- root node -->
            <feature>
              <rects>
                <_>
                  14 10 4 6 -1.</_>
                <_>
                  15 11 2 6 2.</_></rects>
              <tilted>1</tilted></feature>
            <threshold>4.4362898916006088e-03</threshold>
            <left_val>-7.7081179618835449e-01</left_val>
            <right_node>1</right_node></_>
          <_>
            <!-- node 1 -->
            <feature>
              <rects>
                <_>
                  12 2 4 6 -1.</_>
                <_>
                  12 2 4 3 2.</_></rects>
              <tilted>1</tilted></feature>
            <threshold>-4.1006591171026230e-02</threshold>
            <left_val>8.5182178020477295e-01</left_val>
            <right_val>-9.1749191284179688e-01</right_val></_></_>
        <_>
          <!-- tree 2 -->
          <_>
            <!-- root node -->
            <feature>
              <rects>
                <_>
                  0 7 6 6 -1.</_>
                <_>
                  2 9 2 2 9.</_></rects>
              <tilted>0</tilted></feature>
            <threshold>-1.4897949993610382e-02</threshold>
            <left_node>1</left_node>
            <right_val>-7.7824378013610840e-01</right_val></_>
          <_>
            <!-- node 1 -->
            <feature>
              <rects>
                <_>
                  14 6 4 10 -1.</_>
                <_>
                  15 7 2 10 2.</_></rects>
              <tilted>1</tilted></feature>
            <threshold>3.7015751004219055e-03</threshold>
            <left_val>9.2302680015563965e-01</left_val>
            <right_val>-8.3704847097396851e-01</right_val></_></_>
        <_>
          <!-- tree 3 -->
          <_>
            <!-- root node -->
            <feature>
              <rects>
                <_>
                  12 4 6 8 -1.</_>
                <_>
                  12 4 3 8 2.</_></rects>
              <tilted>1</tilted></feature>
            <threshold>2.9593550134450197e-03</threshold>
            <left_val>-9.9237030744552612e-01</left_val>
            <right_node>1</right_node></_>
          <_>
            <!-- node 1 -->
            <feature>
              <rects>
                <_>
                  6 6 6 12 -1.</_>
                <_>
                  6 6 3 6 2.</_>
                <_>
                  9 12 3 6 2.</_></rects>
              <tilted>0</tilted></feature>
            <threshold>6.5938881598412991e-03</threshold>
            <left_val>-1.</left_val>
            <right_val>8.1949710845947266e-01</right_val></_></_></trees>
      <stage_threshold>-2.3404540494084358e-02</stage_threshold>
      <parent>2</parent>
      <next>-1</next></_></stages></haarcascade_left_arrow16>
</opencv_storage>
