<?xml version="1.0"?>
<opencv_storage>
<!-- Automatically converted from haarcascade, window size = 15x15 -->
<haarcascade_stop_sign6s type_id="opencv-haar-classifier">
  <size>
    15 15</size>
  <stages>
    <_>
      <!-- stage 0 -->
      <trees>
        <_>
          <!-- tree 0 -->
          <_>
            <!-- root node -->
            <feature>
              <rects>
                <_>
                  5 5 5 6 -1.</_>
                <_>
                  5 7 5 2 3.</_></rects>
              <tilted>0</tilted></feature>
            <threshold>7.7704116702079773e-02</threshold>
            <left_val>-9.7295737266540527e-01</left_val>
            <right_node>1</right_node></_>
          <_>
            <!-- node 1 -->
            <feature>
              <rects>
                <_>
                  6 6 6 2 -1.</_>
                <_>
                  6 6 3 2 2.</_></rects>
              <tilted>1</tilted></feature>
            <threshold>3.6372501403093338e-02</threshold>
            <left_val>-1.</left_val>
            <right_val>9.8388808965682983e-01</right_val></_></_>
        <_>
          <!-- tree 1 -->
          <_>
            <!-- root node -->
            <feature>
              <rects>
                <_>
                  7 5 2 6 -1.</_>
                <_>
                  7 7 2 2 3.</_></rects>
              <tilted>0</tilted></feature>
            <threshold>3.0618870630860329e-02</threshold>
            <left_val>-1.</left_val>
            <right_node>1</right_node></_>
          <_>
            <!-- node 1 -->
            <feature>
              <rects>
                <_>
                  3 2 7 6 -1.</_>
                <_>
                  3 4 7 2 3.</_></rects>
              <tilted>0</tilted></feature>
            <threshold>-2.5740409269928932e-02</threshold>
            <left_val>9.6733939647674561e-01</left_val>
            <right_val>-1.0000009536743164e+00</right_val></_></_></trees>
      <stage_threshold>-5.6179761886596680e-03</stage_threshold>
      <parent>-1</parent>
      <next>-1</next></_>
    <_>
      <!-- stage 1 -->
      <trees>
        <_>
          <!-- tree 0 -->
          <_>
            <!-- root node -->
            <feature>
              <rects>
                <_>
                  5 5 5 6 -1.</_>
                <_>
                  5 7 5 2 3.</_></rects>
              <tilted>0</tilted></feature>
            <threshold>1.3308410346508026e-01</threshold>
            <left_node>1</left_node>
            <right_val>7.1653187274932861e-01</right_val></_>
          <_>
            <!-- node 1 -->
            <feature>
              <rects>
                <_>
                  3 0 4 3 -1.</_>
                <_>
                  3 0 2 3 2.</_></rects>
              <tilted>1</tilted></feature>
            <threshold>1.2314599752426147e-01</threshold>
            <left_val>-9.2433577775955200e-01</left_val>
            <right_val>8.4187299013137817e-01</right_val></_></_>
        <_>
          <!-- tree 1 -->
          <_>
            <!-- root node -->
            <feature>
              <rects>
                <_>
                  6 3 4 2 -1.</_>
                <_>
                  6 4 4 1 2.</_></rects>
              <tilted>0</tilted></feature>
            <threshold>-2.8678521048277617e-03</threshold>
            <left_val>-9.6409547328948975e-01</left_val>
            <right_node>1</right_node></_>
          <_>
            <!-- node 1 -->
            <feature>
              <rects>
                <_>
                  1 3 10 6 -1.</_>
                <_>
                  1 3 5 3 2.</_>
                <_>
                  6 6 5 3 2.</_></rects>
              <tilted>0</tilted></feature>
            <threshold>2.9332220554351807e-02</threshold>
            <left_val>-7.4128627777099609e-01</left_val>
            <right_val>6.1784607172012329e-01</right_val></_></_>
        <_>
          <!-- tree 2 -->
          <_>
            <!-- root node -->
            <feature>
              <rects>
                <_>
                  4 4 8 3 -1.</_>
                <_>
                  4 4 4 3 2.</_></rects>
              <tilted>1</tilted></feature>
            <threshold>5.8716148138046265e-02</threshold>
            <left_val>-9.1513127088546753e-01</left_val>
            <right_node>1</right_node></_>
          <_>
            <!-- node 1 -->
            <feature>
              <rects>
                <_>
                  2 6 8 5 -1.</_>
                <_>
                  6 6 4 5 2.</_></rects>
              <tilted>0</tilted></feature>
            <threshold>-1.0363809764385223e-02</threshold>
            <left_val>-8.3210158348083496e-01</left_val>
            <right_val>5.7967752218246460e-01</right_val></_></_>
        <_>
          <!-- tree 3 -->
          <_>
            <!-- root node -->
            <feature>
              <rects>
                <_>
                  5 1 6 3 -1.</_>
                <_>
                  5 2 6 1 3.</_></rects>
              <tilted>0</tilted></feature>
            <threshold>-1.3693820219486952e-03</threshold>
            <left_node>1</left_node>
            <right_val>-6.4832741022109985e-01</right_val></_>
          <_>
            <!-- node 1 -->
            <feature>
              <rects>
                <_>
                  6 2 3 2 -1.</_>
                <_>
                  7 2 1 2 3.</_></rects>
              <tilted>0</tilted></feature>
            <threshold>-1.8536020070314407e-03</threshold>
            <left_val>-7.1895110607147217e-01</left_val>
            <right_val>7.6322990655899048e-01</right_val></_></_>
        <_>
          <!-- tree 4 -->
          <_>
            <!-- root node -->
            <feature>
              <rects>
                <_>
                  1 5 6 4 -1.</_>
                <_>
                  1 5 3 2 2.</_>
                <_>
                  4 7 3 2 2.</_></rects>
              <tilted>0</tilted></feature>
            <threshold>2.4849709123373032e-02</threshold>
            <left_val>-6.0145628452301025e-01</left_val>
            <right_node>1</right_node></_>
          <_>
            <!-- node 1 -->
            <feature>
              <rects>
                <_>
                  6 5 6 4 -1.</_>
                <_>
                  6 5 3 4 2.</_></rects>
              <tilted>1</tilted></feature>
            <threshold>6.3280731439590454e-02</threshold>
            <left_val>-9.8232358694076538e-01</left_val>
            <right_val>7.6901197433471680e-01</right_val></_></_>
        <_>
          <!-- tree 5 -->
          <_>
            <!-- root node -->
            <feature>
              <rects>
                <_>
                  7 10 3 2 -1.</_>
                <_>
                  7 11 3 1 2.</_></rects>
              <tilted>0</tilted></feature>
            <threshold>-2.2931320127099752e-03</threshold>
            <left_val>-9.8056942224502563e-01</left_val>
            <right_node>1</right_node></_>
          <_>
            <!-- node 1 -->
            <feature>
              <rects>
                <_>
                  7 10 3 2 -1.</_>
                <_>
                  7 11 3 1 2.</_></rects>
              <tilted>0</tilted></feature>
            <threshold>1.3821859611198306e-03</threshold>
            <left_val>7.1767497062683105e-01</left_val>
            <right_val>-8.9949077367782593e-01</right_val></_></_></trees>
      <stage_threshold>-3.4217229485511780e-01</stage_threshold>
      <parent>0</parent>
      <next>-1</next></_>
    <_>
      <!-- stage 2 -->
      <trees>
        <_>
          <!-- tree 0 -->
          <_>
            <!-- root node -->
            <feature>
              <rects>
                <_>
                  9 3 6 6 -1.</_>
                <_>
                  9 3 3 3 2.</_>
                <_>
                  12 6 3 3 2.</_></rects>
              <tilted>0</tilted></feature>
            <threshold>-3.6919549107551575e-02</threshold>
            <left_node>1</left_node>
            <right_val>-6.2322068214416504e-01</right_val></_>
          <_>
            <!-- node 1 -->
            <feature>
              <rects>
                <_>
                  6 2 6 8 -1.</_>
                <_>
                  9 2 3 8 2.</_></rects>
              <tilted>0</tilted></feature>
            <threshold>-2.0166460424661636e-02</threshold>
            <left_val>-9.0562671422958374e-01</left_val>
            <right_val>7.2182977199554443e-01</right_val></_></_>
        <_>
          <!-- tree 1 -->
          <_>
            <!-- root node -->
            <feature>
              <rects>
                <_>
                  3 2 9 2 -1.</_>
                <_>
                  3 3 9 1 2.</_></rects>
              <tilted>0</tilted></feature>
            <threshold>-1.6833590343594551e-03</threshold>
            <left_node>1</left_node>
            <right_val>-7.1656668186187744e-01</right_val></_>
          <_>
            <!-- node 1 -->
            <feature>
              <rects>
                <_>
                  5 3 3 3 -1.</_>
                <_>
                  6 4 1 1 9.</_></rects>
              <tilted>0</tilted></feature>
            <threshold>-6.1969049274921417e-03</threshold>
            <left_val>-9.4504642486572266e-01</left_val>
            <right_val>6.1989468336105347e-01</right_val></_></_>
        <_>
          <!-- tree 2 -->
          <_>
            <!-- root node -->
            <feature>
              <rects>
                <_>
                  5 8 6 3 -1.</_>
                <_>
                  7 9 2 1 9.</_></rects>
              <tilted>0</tilted></feature>
            <threshold>-3.3336341381072998e-02</threshold>
            <left_node>1</left_node>
            <right_val>-6.4955252408981323e-01</right_val></_>
          <_>
            <!-- node 1 -->
            <feature>
              <rects>
                <_>
                  6 1 9 4 -1.</_>
                <_>
                  6 1 9 2 2.</_></rects>
              <tilted>1</tilted></feature>
            <threshold>2.6782479137182236e-02</threshold>
            <left_val>7.3922991752624512e-01</left_val>
            <right_val>-7.9092651605606079e-01</right_val></_></_>
        <_>
          <!-- tree 3 -->
          <_>
            <!-- root node -->
            <feature>
              <rects>
                <_>
                  13 10 2 4 -1.</_>
                <_>
                  13 10 1 2 2.</_>
                <_>
                  14 12 1 2 2.</_></rects>
              <tilted>0</tilted></feature>
            <threshold>5.6819119490683079e-03</threshold>
            <left_node>1</left_node>
            <right_val>7.3649221658706665e-01</right_val></_>
          <_>
            <!-- node 1 -->
            <feature>
              <rects>
                <_>
                  0 11 3 1 -1.</_>
                <_>
                  1 11 1 1 3.</_></rects>
              <tilted>0</tilted></feature>
            <threshold>-6.2909750267863274e-03</threshold>
            <left_val>7.9210597276687622e-01</left_val>
            <right_val>-6.1900627613067627e-01</right_val></_></_>
        <_>
          <!-- tree 4 -->
          <_>
            <!-- root node -->
            <feature>
              <rects>
                <_>
                  4 8 4 3 -1.</_>
                <_>
                  3 9 4 1 3.</_></rects>
              <tilted>1</tilted></feature>
            <threshold>-2.7452839538455009e-02</threshold>
            <left_val>6.5750169754028320e-01</left_val>
            <right_node>1</right_node></_>
          <_>
            <!-- node 1 -->
            <feature>
              <rects>
                <_>
                  1 12 3 3 -1.</_>
                <_>
                  2 13 1 1 9.</_></rects>
              <tilted>0</tilted></feature>
            <threshold>-2.2007640451192856e-02</threshold>
            <left_val>5.7369118928909302e-01</left_val>
            <right_val>-7.0604348182678223e-01</right_val></_></_>
        <_>
          <!-- tree 5 -->
          <_>
            <!-- root node -->
            <feature>
              <rects>
                <_>
                  3 3 8 5 -1.</_>
                <_>
                  5 3 4 5 2.</_></rects>
              <tilted>0</tilted></feature>
            <threshold>6.2369029037654400e-03</threshold>
            <left_node>1</left_node>
            <right_val>-8.5355651378631592e-01</right_val></_>
          <_>
            <!-- node 1 -->
            <feature>
              <rects>
                <_>
                  4 4 8 8 -1.</_>
                <_>
                  6 4 4 8 2.</_></rects>
              <tilted>0</tilted></feature>
            <threshold>-1.2702849693596363e-02</threshold>
            <left_val>-8.9965498447418213e-01</left_val>
            <right_val>5.4927408695220947e-01</right_val></_></_></trees>
      <stage_threshold>-2.1452979743480682e-01</stage_threshold>
      <parent>1</parent>
      <next>-1</next></_>
    <_>
      <!-- stage 3 -->
      <trees>
        <_>
          <!-- tree 0 -->
          <_>
            <!-- root node -->
            <feature>
              <rects>
                <_>
                  1 3 6 6 -1.</_>
                <_>
                  1 3 3 3 2.</_>
                <_>
                  4 6 3 3 2.</_></rects>
              <tilted>0</tilted></feature>
            <threshold>4.4329449534416199e-02</threshold>
            <left_val>-6.1214822530746460e-01</left_val>
            <right_node>1</right_node></_>
          <_>
            <!-- node 1 -->
            <feature>
              <rects>
                <_>
                  6 2 7 4 -1.</_>
                <_>
                  6 2 7 2 2.</_></rects>
              <tilted>1</tilted></feature>
            <threshold>-2.4978859350085258e-02</threshold>
            <left_val>-8.4778678417205811e-01</left_val>
            <right_val>6.5375679731369019e-01</right_val></_></_>
        <_>
          <!-- tree 1 -->
          <_>
            <!-- root node -->
            <feature>
              <rects>
                <_>
                  1 0 6 2 -1.</_>
                <_>
                  1 0 3 1 2.</_>
                <_>
                  4 1 3 1 2.</_></rects>
              <tilted>0</tilted></feature>
            <threshold>7.9826237633824348e-03</threshold>
            <left_node>1</left_node>
            <right_val>7.6291698217391968e-01</right_val></_>
          <_>
            <!-- node 1 -->
            <feature>
              <rects>
                <_>
                  4 1 2 2 -1.</_>
                <_>
                  4 1 1 1 2.</_>
                <_>
                  5 2 1 1 2.</_></rects>
              <tilted>0</tilted></feature>
            <threshold>2.4066979531198740e-03</threshold>
            <left_val>-6.1519569158554077e-01</left_val>
            <right_val>5.2763921022415161e-01</right_val></_></_>
        <_>
          <!-- tree 2 -->
          <_>
            <!-- root node -->
            <feature>
              <rects>
                <_>
                  4 4 6 8 -1.</_>
                <_>
                  7 4 3 8 2.</_></rects>
              <tilted>0</tilted></feature>
            <threshold>1.4276539906859398e-02</threshold>
            <left_node>1</left_node>
            <right_val>-8.6232179403305054e-01</right_val></_>
          <_>
            <!-- node 1 -->
            <feature>
              <rects>
                <_>
                  7 1 8 6 -1.</_>
                <_>
                  7 1 8 3 2.</_></rects>
              <tilted>1</tilted></feature>
            <threshold>-3.5758990794420242e-02</threshold>
            <left_val>-9.8627549409866333e-01</left_val>
            <right_val>4.7182619571685791e-01</right_val></_></_>
        <_>
          <!-- tree 3 -->
          <_>
            <!-- root node -->
            <feature>
              <rects>
                <_>
                  3 1 9 12 -1.</_>
                <_>
                  3 7 9 6 2.</_></rects>
              <tilted>0</tilted></feature>
            <threshold>-3.2409240957349539e-03</threshold>
            <left_val>-8.6706769466400146e-01</left_val>
            <right_node>1</right_node></_>
          <_>
            <!-- node 1 -->
            <feature>
              <rects>
                <_>
                  6 10 3 4 -1.</_>
                <_>
                  6 12 3 2 2.</_></rects>
              <tilted>0</tilted></feature>
            <threshold>-7.6001980341970921e-03</threshold>
            <left_val>-1.</left_val>
            <right_val>4.0383601188659668e-01</right_val></_></_>
        <_>
          <!-- tree 4 -->
          <_>
            <!-- root node -->
            <feature>
              <rects>
                <_>
                  13 1 2 4 -1.</_>
                <_>
                  13 1 1 2 2.</_>
                <_>
                  14 3 1 2 2.</_></rects>
              <tilted>0</tilted></feature>
            <threshold>-3.1619649380445480e-03</threshold>
            <left_val>7.0096909999847412e-01</left_val>
            <right_node>1</right_node></_>
          <_>
            <!-- node 1 -->
            <feature>
              <rects>
                <_>
                  13 4 2 9 -1.</_>
                <_>
                  14 4 1 9 2.</_></rects>
              <tilted>0</tilted></feature>
            <threshold>1.9412640482187271e-02</threshold>
            <left_val>-7.0535182952880859e-01</left_val>
            <right_val>6.7230039834976196e-01</right_val></_></_>
        <_>
          <!-- tree 5 -->
          <_>
            <!-- root node -->
            <feature>
              <rects>
                <_>
                  8 0 4 2 -1.</_>
                <_>
                  8 0 2 1 2.</_>
                <_>
                  10 1 2 1 2.</_></rects>
              <tilted>0</tilted></feature>
            <threshold>6.4433678053319454e-03</threshold>
            <left_node>1</left_node>
            <right_val>7.2348117828369141e-01</right_val></_>
          <_>
            <!-- node 1 -->
            <feature>
              <rects>
                <_>
                  2 0 3 2 -1.</_>
                <_>
                  3 1 1 2 3.</_></rects>
              <tilted>1</tilted></feature>
            <threshold>-3.5934269428253174e-02</threshold>
            <left_val>8.6677527427673340e-01</left_val>
            <right_val>-6.0135841369628906e-01</right_val></_></_>
        <_>
          <!-- tree 6 -->
          <_>
            <!-- root node -->
            <feature>
              <rects>
                <_>
                  6 10 4 3 -1.</_>
                <_>
                  6 11 4 1 3.</_></rects>
              <tilted>0</tilted></feature>
            <threshold>-4.8422790132462978e-03</threshold>
            <left_val>-9.5134592056274414e-01</left_val>
            <right_node>1</right_node></_>
          <_>
            <!-- node 1 -->
            <feature>
              <rects>
                <_>
                  3 10 6 3 -1.</_>
                <_>
                  3 11 6 1 3.</_></rects>
              <tilted>0</tilted></feature>
            <threshold>-6.6261716710869223e-05</threshold>
            <left_val>6.6886889934539795e-01</left_val>
            <right_val>-4.6730309724807739e-01</right_val></_></_></trees>
      <stage_threshold>1.5331199765205383e-01</stage_threshold>
      <parent>2</parent>
      <next>-1</next></_>
    <_>
      <!-- stage 4 -->
      <trees>
        <_>
          <!-- tree 0 -->
          <_>
            <!-- root node -->
            <feature>
              <rects>
                <_>
                  4 1 6 3 -1.</_>
                <_>
                  4 2 6 1 3.</_></rects>
              <tilted>0</tilted></feature>
            <threshold>-7.3914427775889635e-04</threshold>
            <left_node>1</left_node>
            <right_val>-6.2304359674453735e-01</right_val></_>
          <_>
            <!-- node 1 -->
            <feature>
              <rects>
                <_>
                  6 3 2 2 -1.</_>
                <_>
                  6 4 2 1 2.</_></rects>
              <tilted>0</tilted></feature>
            <threshold>1.2677760096266866e-03</threshold>
            <left_val>6.6399860382080078e-01</left_val>
            <right_val>-8.3543807268142700e-01</right_val></_></_>
        <_>
          <!-- tree 1 -->
          <_>
            <!-- root node -->
            <feature>
              <rects>
                <_>
                  7 3 4 9 -1.</_>
                <_>
                  9 3 2 9 2.</_></rects>
              <tilted>0</tilted></feature>
            <threshold>7.7365338802337646e-03</threshold>
            <left_node>1</left_node>
            <right_val>-8.4055602550506592e-01</right_val></_>
          <_>
            <!-- node 1 -->
            <feature>
              <rects>
                <_>
                  1 5 14 5 -1.</_>
                <_>
                  8 5 7 5 2.</_></rects>
              <tilted>0</tilted></feature>
            <threshold>5.0754349678754807e-02</threshold>
            <left_val>6.0184562206268311e-01</left_val>
            <right_val>-7.7843761444091797e-01</right_val></_></_>
        <_>
          <!-- tree 2 -->
          <_>
            <!-- root node -->
            <feature>
              <rects>
                <_>
                  4 12 1 3 -1.</_>
                <_>
                  4 13 1 1 3.</_></rects>
              <tilted>0</tilted></feature>
            <threshold>1.6362889437004924e-03</threshold>
            <left_node>1</left_node>
            <right_val>7.1546047925949097e-01</right_val></_>
          <_>
            <!-- node 1 -->
            <feature>
              <rects>
                <_>
                  4 13 4 2 -1.</_>
                <_>
                  4 13 2 1 2.</_>
                <_>
                  6 14 2 1 2.</_></rects>
              <tilted>0</tilted></feature>
            <threshold>-3.5440879873931408e-03</threshold>
            <left_val>7.2462838888168335e-01</left_val>
            <right_val>-8.0592191219329834e-01</right_val></_></_>
        <_>
          <!-- tree 3 -->
          <_>
            <!-- root node -->
            <feature>
              <rects>
                <_>
                  4 1 8 6 -1.</_>
                <_>
                  4 3 8 2 3.</_></rects>
              <tilted>0</tilted></feature>
            <threshold>-5.5930841714143753e-02</threshold>
            <left_node>1</left_node>
            <right_val>-8.3793777227401733e-01</right_val></_>
          <_>
            <!-- node 1 -->
            <feature>
              <rects>
                <_>
                  7 1 8 4 -1.</_>
                <_>
                  7 3 8 2 2.</_></rects>
              <tilted>0</tilted></feature>
            <threshold>-7.3989123106002808e-02</threshold>
            <left_val>-7.7012097835540771e-01</left_val>
            <right_val>6.9781589508056641e-01</right_val></_></_>
        <_>
          <!-- tree 4 -->
          <_>
            <!-- root node -->
            <feature>
              <rects>
                <_>
                  4 13 4 2 -1.</_>
                <_>
                  4 13 2 1 2.</_>
                <_>
                  6 14 2 1 2.</_></rects>
              <tilted>0</tilted></feature>
            <threshold>7.3547638021409512e-03</threshold>
            <left_node>1</left_node>
            <right_val>8.1204408407211304e-01</right_val></_>
          <_>
            <!-- node 1 -->
            <feature>
              <rects>
                <_>
                  1 0 2 6 -1.</_>
                <_>
                  1 0 1 3 2.</_>
                <_>
                  2 3 1 3 2.</_></rects>
              <tilted>0</tilted></feature>
            <threshold>-1.2349110096693039e-02</threshold>
            <left_val>8.0996721982955933e-01</left_val>
            <right_val>-6.4767009019851685e-01</right_val></_></_></trees>
      <stage_threshold>-7.2352862358093262e-01</stage_threshold>
      <parent>3</parent>
      <next>-1</next></_></stages></haarcascade_stop_sign6s>
</opencv_storage>
