<?xml version="1.0"?>
<opencv_storage>
<!-- Automatically converted from haarcascade2, window size = 20x20 -->
<haarcascade2 type_id="opencv-haar-classifier">
  <size>
    20 20</size>
  <stages>
    <_>
      <!-- stage 0 -->
      <trees>
        <_>
          <!-- tree 0 -->
          <_>
            <!-- root node -->
            <feature>
              <rects>
                <_>
                  13 7 2 3 -1.</_>
                <_>
                  12 8 2 1 3.</_></rects>
              <tilted>1</tilted></feature>
            <threshold>1.1697559617459774e-02</threshold>
            <left_val>-8.3568167686462402e-01</left_val>
            <right_node>1</right_node></_>
          <_>
            <!-- node 1 -->
            <feature>
              <rects>
                <_>
                  7 8 2 6 -1.</_>
                <_>
                  7 11 2 3 2.</_></rects>
              <tilted>0</tilted></feature>
            <threshold>-3.5184810403734446e-03</threshold>
            <left_val>9.6898281574249268e-01</left_val>
            <right_val>-1.</right_val></_></_>
        <_>
          <!-- tree 1 -->
          <_>
            <!-- root node -->
            <feature>
              <rects>
                <_>
                  12 1 8 4 -1.</_>
                <_>
                  11 2 8 2 2.</_></rects>
              <tilted>1</tilted></feature>
            <threshold>-3.4912519156932831e-02</threshold>
            <left_val>9.0249252319335938e-01</left_val>
            <right_node>1</right_node></_>
          <_>
            <!-- node 1 -->
            <feature>
              <rects>
                <_>
                  5 14 3 2 -1.</_>
                <_>
                  5 14 3 1 2.</_></rects>
              <tilted>1</tilted></feature>
            <threshold>2.2030569612979889e-02</threshold>
            <left_val>-8.4300190210342407e-01</left_val>
            <right_val>1.0000020265579224e+00</right_val></_></_></trees>
      <stage_threshold>6.6810786724090576e-02</stage_threshold>
      <parent>-1</parent>
      <next>-1</next></_>
    <_>
      <!-- stage 1 -->
      <trees>
        <_>
          <!-- tree 0 -->
          <_>
            <!-- root node -->
            <feature>
              <rects>
                <_>
                  3 7 6 10 -1.</_>
                <_>
                  3 7 3 5 2.</_>
                <_>
                  6 12 3 5 2.</_></rects>
              <tilted>0</tilted></feature>
            <threshold>-1.8996389582753181e-02</threshold>
            <left_node>1</left_node>
            <right_val>-8.8305747509002686e-01</right_val></_>
          <_>
            <!-- node 1 -->
            <feature>
              <rects>
                <_>
                  9 9 2 1 -1.</_>
                <_>
                  9 9 1 1 2.</_></rects>
              <tilted>1</tilted></feature>
            <threshold>1.1112459469586611e-03</threshold>
            <left_val>-9.4410687685012817e-01</left_val>
            <right_val>8.0702972412109375e-01</right_val></_></_></trees>
      <stage_threshold>8.0702972412109375e-01</stage_threshold>
      <parent>0</parent>
      <next>-1</next></_></stages></haarcascade2>
</opencv_storage>
